<?xml version="1.0"?>
<opencv_storage>
<stage0>
  <maxWeakCount>7</maxWeakCount>
  <stageThreshold>-2.8185656070709229e+00</stageThreshold>
  <weakClassifiers>
    <_>
      <internalNodes>
        0 -1 86349 -1.4652982354164124e-01</internalNodes>
      <leafValues>
        6.4759033918380737e-01 -9.6475249528884888e-01</leafValues></_>
    <_>
      <internalNodes>
        0 -1 144728 -5.8863781392574310e-02</internalNodes>
      <leafValues>
        3.8672420382499695e-01 -8.7462455034255981e-01</leafValues></_>
    <_>
      <internalNodes>
        0 -1 27402 1.0062360018491745e-01</internalNodes>
      <leafValues>
        -6.1294877529144287e-01 5.8668845891952515e-01</leafValues></_>
    <_>
      <internalNodes>
        0 -1 17507 -3.7096892483532429e-03</internalNodes>
      <leafValues>
        3.1020835041999817e-01 -5.9333097934722900e-01</leafValues></_>
    <_>
      <internalNodes>
        0 -1 194794 3.4708851017057896e-03</internalNodes>
      <leafValues>
        -4.3984290957450867e-01 3.3751186728477478e-01</leafValues></_>
    <_>
      <internalNodes>
        0 -1 13163 2.7934084646403790e-03</internalNodes>
      <leafValues>
        -3.0349192023277283e-01 4.3818902969360352e-01</leafValues></_>
    <_>
      <internalNodes>
        0 -1 260970 -8.3764560986310244e-04</internalNodes>
      <leafValues>
        -7.4964457750320435e-01 2.2874513268470764e-01</leafValues></_></weakClassifiers></stage0>
</opencv_storage>
