<?xml version="1.0"?>
<opencv_storage>
<stage4>
  <maxWeakCount>7</maxWeakCount>
  <stageThreshold>-2.1743175983428955e+00</stageThreshold>
  <weakClassifiers>
    <_>
      <internalNodes>
        0 -1 15616 -2.5495091080665588e-01</internalNodes>
      <leafValues>
        2.7245950698852539e-01 -9.0767723321914673e-01</leafValues></_>
    <_>
      <internalNodes>
        0 -1 12079 9.0800568461418152e-02</internalNodes>
      <leafValues>
        -7.3187917470932007e-01 2.9592958092689514e-01</leafValues></_>
    <_>
      <internalNodes>
        0 -1 28150 -1.1365221440792084e-01</internalNodes>
      <leafValues>
        3.3850830793380737e-01 -7.1454960107803345e-01</leafValues></_>
    <_>
      <internalNodes>
        0 -1 8412 -3.0949565768241882e-01</internalNodes>
      <leafValues>
        4.6772754192352295e-01 -6.6141778230667114e-01</leafValues></_>
    <_>
      <internalNodes>
        0 -1 4329 -3.6298699676990509e-02</internalNodes>
      <leafValues>
        3.4382784366607666e-01 -8.1105655431747437e-01</leafValues></_>
    <_>
      <internalNodes>
        0 -1 50630 2.2871379042044282e-04</internalNodes>
      <leafValues>
        -5.9453904628753662e-01 3.5338446497917175e-01</leafValues></_>
    <_>
      <internalNodes>
        0 -1 26392 -3.9399983361363411e-03</internalNodes>
      <leafValues>
        2.4582028388977051e-01 -7.6268339157104492e-01</leafValues></_></weakClassifiers></stage4>
</opencv_storage>
