<?xml version="1.0"?>
<opencv_storage>
<stage7>
  <maxWeakCount>8</maxWeakCount>
  <stageThreshold>-2.0371477603912354e+00</stageThreshold>
  <weakClassifiers>
    <_>
      <internalNodes>
        0 -1 20145 -2.7285701036453247e-01</internalNodes>
      <leafValues>
        -1.3761468231678009e-02 -8.6836069822311401e-01</leafValues></_>
    <_>
      <internalNodes>
        0 -1 8724 -2.9726490378379822e-01</internalNodes>
      <leafValues>
        3.8591783493757248e-02 -7.3114979267120361e-01</leafValues></_>
    <_>
      <internalNodes>
        0 -1 43187 6.6032325848937035e-03</internalNodes>
      <leafValues>
        -5.8130478858947754e-01 3.2012861967086792e-01</leafValues></_>
    <_>
      <internalNodes>
        0 -1 5119 -3.0297008343040943e-03</internalNodes>
      <leafValues>
        4.2207407951354980e-01 -4.5705017447471619e-01</leafValues></_>
    <_>
      <internalNodes>
        0 -1 41968 1.7981357872486115e-02</internalNodes>
      <leafValues>
        -7.0439797639846802e-01 2.8084638714790344e-01</leafValues></_>
    <_>
      <internalNodes>
        0 -1 34698 -9.4535611569881439e-03</internalNodes>
      <leafValues>
        2.6525548100471497e-01 -5.5772811174392700e-01</leafValues></_>
    <_>
      <internalNodes>
        0 -1 13269 -7.0249887357931584e-05</internalNodes>
      <leafValues>
        1.9262713193893433e-01 -7.7400267124176025e-01</leafValues></_>
    <_>
      <internalNodes>
        0 -1 37429 1.2109732255339622e-02</internalNodes>
      <leafValues>
        1.6499710083007812e-01 -8.0372428894042969e-01</leafValues></_></weakClassifiers></stage7>
</opencv_storage>
