<?xml version="1.0"?>
<opencv_storage>
<stage10>
  <maxWeakCount>10</maxWeakCount>
  <stageThreshold>-1.9980310201644897e+00</stageThreshold>
  <weakClassifiers>
    <_>
      <internalNodes>
        0 -1 17686 6.5880626440048218e-02</internalNodes>
      <leafValues>
        -8.8319259881973267e-01 -3.2426777482032776e-01</leafValues></_>
    <_>
      <internalNodes>
        0 -1 47466 -2.3633148521184921e-02</internalNodes>
      <leafValues>
        -1.9164230674505234e-02 -7.1207135915756226e-01</leafValues></_>
    <_>
      <internalNodes>
        0 -1 318 5.5881608277559280e-02</internalNodes>
      <leafValues>
        -4.9100357294082642e-01 2.6662769913673401e-01</leafValues></_>
    <_>
      <internalNodes>
        0 -1 27720 1.8800743855535984e-03</internalNodes>
      <leafValues>
        1.8498323857784271e-01 -7.1517169475555420e-01</leafValues></_>
    <_>
      <internalNodes>
        0 -1 27720 -4.2876405641436577e-03</internalNodes>
      <leafValues>
        -6.5308171510696411e-01 2.6502105593681335e-01</leafValues></_>
    <_>
      <internalNodes>
        0 -1 14333 6.0246866196393967e-03</internalNodes>
      <leafValues>
        -5.9945255517959595e-01 1.6985230147838593e-01</leafValues></_>
    <_>
      <internalNodes>
        0 -1 40493 1.5083631733432412e-03</internalNodes>
      <leafValues>
        -6.1485880613327026e-01 2.2776888310909271e-01</leafValues></_>
    <_>
      <internalNodes>
        0 -1 12977 -1.8437044695019722e-02</internalNodes>
      <leafValues>
        1.4816339313983917e-01 -7.6645171642303467e-01</leafValues></_>
    <_>
      <internalNodes>
        0 -1 22008 -4.3549551628530025e-03</internalNodes>
      <leafValues>
        -8.3868610858917236e-01 1.2482057511806488e-01</leafValues></_>
    <_>
      <internalNodes>
        0 -1 30287 -3.1478058081120253e-03</internalNodes>
      <leafValues>
        -8.3753490447998047e-01 1.1911126971244812e-01</leafValues></_></weakClassifiers></stage10>
</opencv_storage>
